svm_type c_svc
kernel_type rbf
gamma 2
nr_class 2
total_sv 221
rho 0.104066
label 0 1
probA -2.72377
probB 0.139066
nr_sv 104 117
SV
0.1340980411933703 1:-0.582259 2:0.211517 3:-0.051831 4:-0.459954 5:-0.972848 6:0.778652 7:-0.644206 8:0.154696 9:-0.10601 10:-0.45733 11:-0.309648 
0.6862645290416048 1:-0.778553 2:0.226025 3:-0.130442 4:-0.183697 5:-0.967719 6:0.645056 7:-0.910106 8:0.286504 9:-0.167223 10:-0.956281 11:-0.611149 
0.5316262867517474 1:-0.608771 2:0.242624 3:0.259727 4:-0.214582 5:-0.831367 6:0.476511 7:-0.837144 8:-0.166272 9:0.012243 10:-0.664528 11:0.153915 
0.6162676669988212 1:-0.122882 2:0.998442 3:-0.60839 4:0.639252 5:-0.999593 6:0.860655 7:-0.365286 8:-0.936333 9:-0.969672 10:-0.35474 11:1 
9.991519311100562 1:0.689824 2:0.677851 3:-0.675707 4:0.384387 5:-0.996235 6:0.578788 7:0.250618 8:-0.94633 9:-0.966611 10:-0.232119 11:1 
1.530296706645971 1:-0.641871 2:0.797339 3:-0.544154 4:0.727161 5:-0.995359 6:0.651713 7:0.049583 8:-0.848724 9:-0.875904 10:-0.187555 11:0.209682 
1.300126312358481 1:0.737098 2:0.165591 3:-0.655827 4:-0.04117 5:0.085171 6:0.914971 7:0.401308 8:-0.836622 9:-0.958542 10:-1 11:-0.541101 
0.5888787503799282 1:0.323319 2:0.116506 3:0.229936 4:-0.42198 5:-0.917729 6:0.837961 7:-0.831133 8:0.112339 9:-0.154981 10:-0.832534 11:-0.378546 
0.3411881404563887 1:0.262483 2:0.965511 3:-0.752351 4:0.79893 5:-0.993181 6:0.33989 7:0.357491 8:-0.958432 9:-0.972732 10:0.078327 11:1 
1.783586478767317 1:0.355219 2:0.798006 3:-0.775268 4:0.825259 5:-0.995054 6:0.764884 7:-0.21974 8:-0.958958 9:-0.97941 10:-0.638025 11:1 
0.3973044377871098 1:0.252839 2:0.063148 3:-0.1551 4:-0.405272 5:-0.908366 6:0.911037 7:-0.676711 8:-0.677979 9:-0.559822 10:-0.230876 11:0.464889 
0.2706308182024927 1:-0.481282 2:0.125139 3:0.076245 4:-0.418879 5:-0.902484 6:0.891066 7:-0.803639 8:-0.526967 9:-0.371731 10:-0.473209 11:0.463471 
0.3357493212127058 1:-0.231873 2:0.313026 3:0.497411 4:-0.179077 5:-0.938266 6:0.950526 7:-0.786206 8:-0.373586 9:-0.232053 10:-0.693073 11:0.146477 
0.388945489415435 1:0.239933 2:-0.437453 3:-0.787646 4:-0.916332 5:-0.99998 6:0.566836 7:0.476205 8:-0.962378 9:-0.988036 10:0.094698 11:1 
0.3658237903892759 1:-0.081834 2:0.436741 3:-0.3554 4:0.588621 5:-0.963058 6:0.947349 7:-0.853071 8:0.167851 9:-0.326934 10:-0.907683 11:-0.688451 
0.1383426503034091 1:-0.40736 2:0.084286 3:0.095665 4:-0.531154 5:-0.888542 6:0.586807 7:-0.862493 8:0.368061 9:-0.144964 10:-0.902687 11:-0.587807 
1.529354240566403 1:-0.412907 2:0.876997 3:-0.707931 4:0.775767 5:-0.972848 6:0.865194 7:-0.121115 8:-0.976322 9:-0.997496 10:-0.83699 11:1 
0.6083193543823882 1:-0.056432 2:0.706778 3:-0.020249 4:0.482738 5:-0.994301 6:-0.195552 7:0.136943 8:-0.864246 9:-0.890651 10:-0.088858 11:0.567403 
0.1870998354189362 1:-0.330745 2:0.048462 3:0.137523 4:-0.745578 5:-0.863079 6:0.639458 7:-0.801232 8:0.217837 9:0.008069 10:-0.727715 11:-0.308991 
0.0597019561520865 1:0.286211 2:0.435139 3:-0.013289 4:0.394703 5:-0.983106 6:0.831455 7:-0.889377 8:-0.699553 9:-0.592654 10:-0.932685 11:0.323744 
1.160983826551199 1:-0.236039 2:0.995327 3:1 4:0.5078 5:-1 6:0.777593 7:-0.366466 8:-0.954223 9:-0.968559 10:-0.040494 11:1 
0.680979521860813 1:-0.129266 2:0.028659 3:-0.302554 4:-0.506155 5:-0.957623 6:0.776988 7:-0.865306 8:-0.7598 9:-0.620479 10:-0.90787 11:0.582629 
6.548809131641429 1:0.193203 2:0.865293 3:-0.059973 4:0.622354 5:-0.978323 6:-0.076783 7:0.334856 8:-0.935806 9:-0.951308 10:0.078725 11:0.917808 
1.029833207366677 1:-0.121523 2:0.573806 3:-0.333562 4:-0.196671 5:-0.998799 6:0.940389 7:-0.633569 8:-0.882926 9:-0.880356 10:-0.229562 11:0.508635 
1.007479404960365 1:-0.544336 2:0.017534 3:-0.469797 4:-0.251606 5:-0.999593 6:0.852334 7:-0.549324 8:-0.980268 9:-0.981636 10:0.512753 11:1 
0.269844503941658 1:-0.150073 2:0.210316 3:-0.214273 4:-0.171355 5:-0.985121 6:0.335502 7:-0.730601 8:0.284662 9:-0.017251 10:-0.679164 11:-0.451553 
0.8684009894027422 1:0.110294 2:0.028837 3:-0.191547 4:-0.978988 5:-0.99485 6:0.17664 7:-0.759479 8:-0.136543 9:-0.317752 10:-0.630332 11:-0.335621 
0.08531666172707723 1:-0.143643 2:0.525833 3:-0.734904 4:0.3173 5:-0.995156 6:0.826008 7:-0.723295 8:0.210997 9:-0.122705 10:-0.706723 11:-0.480669 
0.3530203858774558 1:-0.079457 2:0.218415 3:0.101508 4:-0.207114 5:-0.920192 6:0.884258 7:-0.393129 8:-0.070245 9:-0.271564 10:-0.33682 11:-0.385429 
1.255476531618391 1:0.537725 2:0.660362 3:-0.793673 4:0.654758 5:-0.98219 6:0.66064 7:0.428517 8:-0.940016 9:-0.992209 10:-0.826225 11:1 
6.738370177663861 1:0.66381 2:0.410129 3:-0.823978 4:0.562229 5:-0.967189 6:0.578334 7:0.484471 8:-0.985793 9:-0.993322 10:-0.708693 11:1 
0.3429490404234346 1:-0.775745 2:0.828223 3:-0.450268 4:0.470397 5:-0.999267 6:1 7:-0.483437 8:-0.789529 9:-0.807457 10:0.13558 11:0.28873 
0.4290279489307946 1:0.607548 2:0.501357 3:-0.717016 4:0.944432 5:0.789133 6:0.403132 7:-0.718923 8:-0.987635 9:-0.993044 10:-0.327954 11:1 
0.03596407811356037 1:0.612484 2:0.480931 3:-0.78515 4:0.942407 5:-0.211264 6:0.600121 7:-0.667858 8:-0.848461 9:-0.779633 10:-0.40247 11:0.568327 
1.675288230342539 1:0.436137 2:0.795781 3:-0.806886 4:0.967343 5:-0.050569 6:0.611166 7:-0.696137 8:-0.85688 9:-0.79271 10:-0.207749 11:0.702198 
2.689482715327623 1:0.856481 2:0.951849 3:-0.388301 4:0.852853 5:-0.959801 6:0.875028 7:-0.100253 8:-0.630887 9:-0.82749 10:-0.917088 11:-0.076326 
0.2758795194241004 1:0.854014 2:0.800943 3:-0.755361 4:0.930825 5:0.661127 6:0.632347 7:-0.714012 8:-0.715075 9:-0.563996 10:-0.376623 11:0.569478 
3.340352113666264 1:0.604356 2:0.768991 3:-0.725798 4:0.980697 5:-0.521601 6:0.341856 7:-0.536873 8:-0.373323 9:-0.355036 10:-0.271851 11:-0.027401 
3.368900409102443 1:0.764878 2:0.963108 3:-0.84841 4:0.926964 5:-0.033635 6:0.57198 7:-0.876368 8:-0.983162 9:-0.990262 10:-0.627447 11:1 
2.927842007559299 1:0.26237 2:0.980063 3:-0.504895 4:0.600013 5:-0.983493 6:0.629624 7:0.243137 8:-0.824783 9:-0.870061 10:-0.09383 11:0.412923 
0.2136136603057301 1:0.771149 2:0.551733 3:-0.503261 4:0.583114 5:-0.959801 6:0.948559 7:-0.736908 8:-0.741384 9:-0.636617 10:-0.013123 11:0.547944 
2.000330223146023 1:0.553007 2:0.411597 3:-0.313074 4:-0.202747 5:-0.999837 6:0.88335 7:0.414189 8:-0.936333 9:-0.957151 10:-0.413705 11:1 
0.3990416868965418 1:0.420039 2:0.527702 3:-0.855993 4:0.934496 5:0.77576 6:0.548529 7:-0.717395 8:-0.980005 9:-0.988314 10:-0.504052 11:1 
1.519100257772975 1:0.892367 2:0.603756 3:-0.611604 4:0.985 5:0.820722 6:0.800136 7:-0.045322 8:-0.397527 9:-0.641903 10:-0.649916 11:-0.486443 
1.522386649512004 1:0.677055 2:0.775221 3:-0.594033 4:0.609506 5:-0.959211 6:0.950526 7:-0.70874 8:-0.787161 9:-0.6931 10:-0.209086 11:0.620889 
0.3719772152969705 1:0.713823 2:0.638289 3:-0.620099 4:0.756084 5:0.302735 6:0.732052 7:-0.895731 8:-0.767956 9:-0.65025 10:-0.8653 11:0.568019 
3.945234389180901 1:0.344533 2:0.953585 3:-0.708802 4:0.777665 5:-0.993568 6:0.159089 7:-0.300288 8:-0.970008 9:-0.981358 10:-0.261812 11:1 
0.7729150486363808 1:0.635668 2:0.956032 3:-0.580656 4:0.712731 5:-0.994688 6:0.906347 7:-0.633918 8:-0.774007 9:-0.700612 10:-0.31808 11:0.516526 
1.121889683462329 1:0.51762 2:0.125317 3:-0.151842 4:-0.043701 5:-0.900836 6:0.894243 7:-0.674682 8:-0.875559 9:-0.837507 10:-0.267676 11:0.785417 
0.406964769532891 1:-0.608409 2:0.706689 3:-0.528679 4:0.779817 5:-0.981315 6:0.984568 7:-0.391234 8:-0.178637 9:-0.406789 10:-0.58103 11:-0.560601 
1.327190162807694 1:0.290558 2:0.796182 3:-0.558523 4:0.642037 5:-0.433712 6:0.19767 7:-0.060662 8:-0.203104 9:-0.589316 10:-1 11:-0.810177 
1.666590492300571 1:0.235654 2:0.986961 3:-0.583615 4:0.895446 5:-0.668821 6:0.831303 7:-0.826082 8:-0.990792 9:-0.99527 10:-0.835466 11:1 
0.4645732923251424 1:-0.394885 2:0.658493 3:-0.565167 4:0.759565 5:-0.202858 6:0.523413 7:0.030192 8:-0.049724 9:-0.362549 10:-0.724783 11:-0.699157 
0.8623267405729341 1:-0.553551 2:0.782831 3:-0.558647 4:0.639568 5:-0.145439 6:0.465315 7:-0.712698 8:-0.984215 9:-0.991653 10:-0.418489 11:1 
5.587732887234059 1:0.058605 2:0.752926 3:-0.794601 4:0.704566 5:-0.99369 6:0.388607 7:0.453437 8:-0.969745 9:-0.986366 10:-0.842479 11:1 
0.7683983951344903 1:-0.060711 2:0.641538 3:-0.690824 4:0.850764 5:0.08395 6:0.527952 7:0.103305 8:-0.121547 9:-0.373957 10:-0.777204 11:-0.516649 
0.453624707510384 1:0.027633 2:0.097014 3:-0.661042 4:0.659378 5:-0.993283 6:0.978818 7:-0.726713 8:-0.05788 9:-0.063439 10:-0.598081 11:-0.122538 
0.8503597654808738 1:-0.238983 2:0.97726 3:-0.509839 4:0.980191 5:-0.998697 6:0.974885 7:-0.513256 8:-0.965535 9:-0.980801 10:-0.170222 11:1 
2.015397279170386 1:0.352933 2:0.993814 3:-0.581725 4:0.998228 5:-0.999959 6:0.958545 7:-0.293644 8:-0.970534 9:-0.971063 10:0.875339 11:1 
0.04167045698601646 1:-0.154511 2:0.13938 3:-0.180712 4:0.505269 5:-0.987584 6:0.932521 7:-0.863964 8:-0.356748 9:-0.347524 10:-0.855543 11:-0.073058 
10.04934093085782 1:0.373196 2:0.782253 3:-0.733602 4:0.821208 5:-0.988887 6:0.529616 7:0.56156 8:-0.97448 9:-0.98581 10:-0.004046 11:1 
9.945856211309328 1:0.655365 2:0.783009 3:-0.785026 4:0.862852 5:-0.955058 6:0.731901 7:-0.035161 8:-0.811365 9:-0.897051 10:-0.973801 11:-0.297772 
1.521905460292273 1:0.294044 2:0.72618 3:-0.402656 4:0.582228 5:-0.915266 6:0.943717 7:-0.660581 8:-0.284399 9:-0.406233 10:-0.43289 11:-0.264484 
0.05121516352291221 1:0.111901 2:0.03351 3:0.060531 4:-0.671783 5:-0.989701 6:0.719797 7:-0.717441 8:-0.318074 9:-0.354201 10:-0.519297 11:-0.104723 
0.6773825158168125 1:-1 2:0.638423 3:-0.374078 4:0.712288 5:-0.98793 6:0.801195 7:-0.914657 8:-0.556959 9:-0.387869 10:-0.868279 11:0.355964 
6.234183407480502 1:0.899589 2:0.548618 3:-0.830385 4:0.886333 5:-0.935702 6:0.715107 7:0.026861 8:-0.792686 9:-0.834446 10:0.038337 11:0.351114 
0.2940549998853687 1:-0.514699 2:0.804949 3:-0.701497 4:0.922724 5:-0.974212 6:0.91255 7:-0.72033 8:-0.201789 9:-0.207846 10:-0.504826 11:-0.054195 
0.1903736566089517 1:-0.146201 2:0.607895 3:-0.340974 4:0.734755 5:-0.916956 6:0.867615 7:-0.677478 8:-0.624572 9:-0.486923 10:-0.100773 11:0.507526 
1.362744811704855 1:0.561633 2:-0.087001 3:-0.395631 4:0.415968 5:-0.991533 6:0.540207 7:-0.329334 8:-0.797685 9:-0.818308 10:-0.5811 11:0.041086 
0.1310476261505183 1:0.79422 2:0.597081 3:-0.166886 4:0.743679 5:-0.934949 6:0.829639 7:-0.61652 8:-0.306235 9:0.084029 10:-0.155188 11:0.519485 
0.009826676841602591 1:-0.267261 2:0.659739 3:-0.382332 4:0.876713 5:-0.970629 6:0.729026 7:-0.732351 8:0.225204 9:-0.016138 10:-0.661268 11:-0.425108 
0.5976425911260143 1:0.47012 2:-0.586756 3:-0.545342 4:-0.920192 5:-0.999898 6:0.750208 7:0.17833 8:-0.900552 9:-0.900668 10:0.403783 11:0.657526 
0.5343252438785073 1:0.701846 2:0.65747 3:-0.258842 4:0.841777 5:-0.945309 6:0.812845 7:-0.793216 8:-0.211523 9:0.245687 10:-0.488712 11:0.566971 
0.7356863471603151 1:-0.258227 2:0.888211 3:-0.30249 4:0.811968 5:-0.940017 6:0.806793 7:-0.651071 8:1 9:1 10:-0.680032 11:-0.37384 
1.042159910039756 1:-0.021384 2:0.32602 3:0.263525 4:0.45584 5:-0.998127 6:0.718284 7:-0.116918 8:-0.795054 9:-0.890929 10:-0.772514 11:0.551683 
0.1555634488178041 1:0.812559 2:0.616083 3:-0.219576 4:0.768868 5:-0.938897 6:0.775323 7:-0.689232 8:-0.153907 9:0.198386 10:-0.2988 11:0.389971 
0.02264073275474271 1:-0.348586 2:0.445775 3:-0.38437 4:0.41812 5:-0.946734 6:0.861412 7:-0.709757 8:-0.945804 9:-0.959655 10:-0.129974 11:0.918465 
0.9135168282177856 1:0.860217 2:-0.546304 3:-0.754379 4:0.194646 5:-0.999512 6:0.968228 7:-0.353446 8:-0.877664 9:-0.920145 10:-0.558748 11:0.367758 
0.6659443452652422 1:-0.128655 2:0.525255 3:-0.466895 4:0.74292 5:-0.979117 6:0.924957 7:-0.783306 8:0.802684 9:0.220924 10:-0.398647 11:-0.481615 
0.3481139801562625 1:-0.392123 2:0.236483 3:-0.362167 4:0.379766 5:-0.945166 6:0.756714 7:-0.70381 8:-0.958169 9:-0.961603 10:-0.068124 11:0.937966 
0.591585679313942 1:-0.629532 2:0.606471 3:-0.381351 4:0.916205 5:-0.935112 6:0.898631 7:-0.647479 8:0.771639 9:0.736505 10:-0.66671 11:-0.165483 
0.1426774676029379 1:-0.395044 2:0.856437 3:-0.439331 4:0.822537 5:-0.93271 6:0.817384 7:-0.602924 8:-0.187319 9:-0.284085 10:-0.529336 11:-0.248991 
0.6280752625123005 1:0.379241 2:-0.277736 3:-0.008501 4:-0.935319 5:-0.99941 6:0.717528 7:0.132903 8:-0.97106 9:-0.973845 10:0.249733 11:1 
0.9861710252999364 1:0.337673 2:0.011481 3:-0.676712 4:-0.205848 5:-0.999756 6:0.585899 7:0.286953 8:-0.922652 9:-0.941291 10:0.176813 11:1 
0.219050236094596 1:0.831758 2:0.515464 3:-0.535971 4:0.727414 5:-0.93444 6:0.895756 7:-0.782347 8:-0.258616 9:-0.076795 10:-0.48245 11:0.160408 
0.2734183496709893 1:-0.492851 2:0.920742 3:-0.640704 4:0.953482 5:-0.956015 6:0.93116 7:-0.651583 8:-0.606156 9:-0.436004 10:-0.095026 11:0.452046 
0.2321540432023138 1:-0.805925 2:0.758444 3:-0.491453 4:0.840765 5:-0.914961 6:0.84371 7:-0.614421 8:-0.069982 9:-0.183361 10:-0.635046 11:-0.392909 
0.4669441693067353 1:-0.017105 2:0.678919 3:0.305137 4:0.600772 5:-0.972298 6:0.921779 7:-0.681106 8:-0.078927 9:-0.073734 10:-0.408075 11:-0.052963 
0.7952739928721257 1:0.01312 2:0.005385 3:-0.21781 4:-1 5:-0.999288 6:0.689689 7:0.651373 8:-0.932912 9:-0.969393 10:-0.083534 11:1 
0.3643289372550019 1:0.376162 2:0.17645 3:-0.63554 4:-0.090282 5:-0.999552 6:0.667297 7:0.168966 8:-0.954749 9:-0.972176 10:-0.267043 11:1 
1.861636851474936 1:-0.61305 2:0.189711 3:-0.709238 4:0.326414 5:-0.999959 6:0.698616 7:0.820589 8:-0.969482 9:-0.975515 10:-0.047765 11:1 
0.4851042047551324 1:-0.334888 2:0.648881 3:-0.188769 4:0.797475 5:-0.995074 6:0.900144 7:-0.08189 8:-0.764009 9:-0.846132 10:-0.89361 11:0.246566 
14.21924356869783 1:0.806174 2:0.680878 3:-0.479526 4:0.856777 5:-0.898332 6:0.865648 7:-0.689389 8:-0.944751 9:-0.944352 10:-0.177821 11:0.834794 
0.2330717354738985 1:0.460973 2:0.283254 3:-0.653902 4:0.5709 5:-0.997802 6:0.9475 7:-0.534723 8:-0.917127 9:-0.920145 10:-0.375403 11:0.519094 
1.766982121740055 1:0.745588 2:0.668996 3:-0.440948 4:0.850638 5:-0.904642 6:0.842499 7:-0.626675 8:-0.931334 9:-0.921536 10:-0.173834 11:0.822568 
3.250270893988065 1:0.753059 2:0.010013 3:-0.751337 4:0.887282 5:-0.999654 6:0.974885 7:-0.378208 8:-0.91055 9:-0.903172 10:-0.22595 11:0.452046 
0.6109497207973499 1:-0.453343 2:0.508611 3:-0.209434 4:0.469827 5:-0.950886 6:0.859142 7:-0.723091 8:-0.958432 9:-0.97941 10:-0.121601 11:0.991575 
0.4950449774802588 1:-0.332873 2:0.659739 3:-0.566225 4:0.930319 5:-0.180814 6:0.748695 7:-0.695486 8:-0.861615 9:-0.820256 10:-0.214153 11:0.376039 
1.550940981105367 1:0.66381 2:0.888211 3:-0.779906 4:0.697794 5:-0.951761 6:0.884258 7:-0.527503 8:-0.932649 9:-0.913467 10:-0.656695 11:0.626396 
1.772097385159243 1:-0.665078 2:0.788527 3:-0.253198 4:0.851144 5:-0.029646 6:-0.090249 7:1 8:-0.982636 9:-0.991653 10:-0.378663 11:1 
1.35173757620385 1:-0.326986 2:0.289662 3:-0.58267 4:0.657099 5:-0.843804 6:0.122929 7:0.468009 8:-0.938963 9:-0.928492 10:0.343059 11:0.4863 
1.13145576016569 1:-0.031233 2:0.956522 3:-0.948286 4:0.993228 5:-0.188712 6:0.647931 7:-0.70642 8:-0.506183 9:-0.396494 10:-0.382557 11:0.15149 
0.3922706121057729 1:-0.900132 2:0.477015 3:-0.272772 4:0.642543 5:-0.89192 6:0.473788 7:-0.685994 8:-0.596159 9:-0.412632 10:-0.199962 11:0.515272 
0.1850705814347098 1:-0.169227 2:0.655467 3:0.295775 4:0.447992 5:-0.970426 6:0.905742 7:-0.740721 8:-0.387793 9:-0.233166 10:-0.373879 11:0.259306 
-0.003004549335609642 1:0.26674 2:0.980909 3:-0.743998 4:0.984811 5:0.424472 6:0.096603 7:0.759502 8:-0.97106 9:-0.978297 10:-0.200948 11:1 
-2.563741392775422 1:-0.315259 2:0.846647 3:-0.687205 4:0.793551 5:-0.992367 6:0.800439 7:0.292202 8:-0.976322 9:-0.992766 10:-0.624538 11:1 
-0.5208562705167613 1:-0.539536 2:0.574429 3:-0.730831 4:0.140597 5:-0.971728 6:-0.42855 7:0.484611 8:-0.988424 9:-0.996105 10:-0.924335 11:1 
-0.1644257183263877 1:-0.27317 2:0.771839 3:-0.562226 4:-0.045853 5:-0.981905 6:0.415841 7:0.511303 8:-0.964483 9:-0.980245 10:-0.654091 11:0.841945 
-0.5865766898156655 1:0.363075 2:-1 3:-0.860169 4:-0.347742 5:-0.96951 6:0.030486 7:0.28471 8:-0.980531 9:-0.996105 10:-0.782153 11:1 
-0.6038419848779022 1:0.435548 2:-0.811401 3:-0.765345 4:0.031866 5:-0.973662 6:0.290869 7:0.386788 8:-0.981847 9:-0.991375 10:-0.495256 11:1 
-0.3090821221893953 1:-0.024939 2:0.711539 3:-0.91098 4:0.959811 5:-0.385005 6:0.300098 7:0.809643 8:-0.99237 9:-0.996105 10:-0.927877 11:1 
-3.539850396777047 1:-0.051677 2:0.930177 3:-0.574711 4:0.804437 5:-0.989579 6:0.010818 7:0.426006 8:-0.954749 9:-0.982193 10:-0.112031 11:0.942918 
-0.8743089475035672 1:-0.327552 2:0.79369 3:-0.809784 4:0.863485 5:-0.987177 6:0.691959 7:0.436039 8:-0.932123 9:-0.940735 10:-0.041808 11:0.818684 
-0.8838860039123001 1:-0.480308 2:0.841885 3:-0.015542 4:0.775134 5:-0.994199 6:0.325062 7:0.313977 8:-0.947382 9:-0.983306 10:-0.208312 11:1 
-0.3538897326769452 1:0.000192 2:0.866673 3:-0.673914 4:0.973988 5:0.971423 6:0.079507 7:0.667434 8:-0.984741 9:-0.991375 10:-0.256347 11:1 
-0.6779408353401825 1:-0.459524 2:0.366428 3:-0.539415 4:0.24996 5:-0.985264 6:-0.336561 7:0.359433 8:-0.97106 9:-0.975515 10:-0.028486 11:1 
-0.6312725379784391 1:-0.090619 2:0.980731 3:-0.699593 4:0.926458 5:0.559194 6:0.278312 7:0.225274 8:-0.900552 9:-0.998052 10:0.299574 11:1 
-0.5768213480867813 1:0.426084 2:0.933158 3:-0.631588 4:0.979368 5:-0.925097 6:0.73765 7:0.605819 8:-0.967377 9:-0.982749 10:-0.32202 11:0.961945 
-4.216460376480594 1:0.546668 2:0.920208 3:-0.913538 4:0.95709 5:-0.692004 6:0.790756 7:-0.001854 8:-0.886083 9:-0.9399 10:-0.958649 11:-0.287498 
-1.305034806120591 1:-0.522488 2:0.247697 3:-0.266614 4:-0.219265 5:-0.957399 6:0.747182 7:0.306031 8:-0.988161 9:-0.995548 10:-0.272015 11:1 
-2.133269043206822 1:0.663833 2:-0.270793 3:-0.766189 4:0.788741 5:-0.982699 6:0.72131 7:-0.100567 8:-0.881873 9:-0.88926 10:-0.778917 11:0.092065 
-0.3559871904783402 1:-0.182268 2:0.327489 3:-0.17867 4:0.140913 5:-0.716795 6:0.809668 7:0.396629 8:-0.977111 9:-0.990262 10:-0.80277 11:1 
-1.521091179809557 1:0.09646 2:0.59846 3:-0.883572 4:0.246226 5:-0.981743 6:0.110977 7:0.368007 8:-0.963957 9:-0.976628 10:-0.445767 11:1 
-5.540906274559303 1:0.627812 2:0.757154 3:-0.748352 4:0.409702 5:-0.994097 6:0.50556 7:0.638481 8:-0.987898 9:-0.99527 10:-0.404088 11:1 
-0.4321112474142975 1:-0.30738 2:0.774776 3:-0.918894 4:0.916395 5:0.779852 6:0.740828 7:0.863452 8:-0.99316 9:-0.996661 10:-0.876464 11:1 
-0.1278028404181052 1:0.704201 2:0.876953 3:-0.798202 4:0.950002 5:0.559052 6:0.717074 7:0.874287 8:-0.973428 9:-0.989427 10:-0.85946 11:1 
-4.511395645312275 1:0.323636 2:0.916025 3:0.086677 4:0.674631 5:-0.994179 6:-0.221272 7:0.272171 8:-0.943699 9:-0.978297 10:-0.174491 11:1 
-0.2297286697350773 1:0.833479 2:0.87722 3:0.677743 4:0.845575 5:-0.987808 6:0.283002 7:0.380254 8:-0.942647 9:-0.969672 10:-0.470629 11:0.863006 
-2.418098348438306 1:0.410123 2:0.847848 3:-0.668602 4:0.797032 5:-0.933056 6:0.266056 7:0.508106 8:-0.991055 9:-0.994713 10:-0.764961 11:1 
-0.8028541768781059 1:0.287162 2:0.947532 3:0.898443 4:0.783171 5:-0.953451 6:0.611922 7:0.658465 8:-0.992897 9:-0.992487 10:-0.993597 11:1 
-0.5357694773241937 1:0.364751 2:0.37386 3:-0.229104 4:0.750008 5:-0.971464 6:0.224601 7:0.871201 8:-0.955275 9:-1 10:-1 11:1 
-0.6212029075847529 1:0.526178 2:0.555917 3:-0.57711 4:0.701339 5:-0.966436 6:0.651108 7:0.166181 8:-0.901342 9:-0.940178 10:-0.180425 11:0.706451 
-0.8330192637773808 1:0.449178 2:0.995594 3:-0.813447 4:0.974241 5:-0.116618 6:-1 7:0.82975 8:-0.983689 9:-0.991653 10:-0.907894 11:1 
-2.341465488285977 1:0.467811 2:0.979752 3:-0.476273 4:0.723047 5:-0.993853 6:0.10553 7:0.090255 8:-0.920021 9:-0.95882 10:0.469034 11:1 
-0.8244452183288896 1:0.027089 2:0.102755 3:-0.513057 4:0.581596 5:-0.846083 6:0.213405 7:0.00193 8:-0.917916 9:-0.928214 10:-0.888778 11:0.4863 
-1.357800172553837 1:0.354698 2:0.860131 3:-0.91391 4:0.912471 5:-0.796542 6:0.325819 7:0.011068 8:-0.904236 9:-0.906789 10:-0.969228 11:0.315073 
-0.9510351981206162 1:0.37906 2:0.426283 3:0.431137 4:0.62824 5:-0.906942 6:0.976549 7:-0.009736 8:-0.696396 9:-0.892877 10:-1 11:-0.883575 
-2.098681961219541 1:0.458619 2:0.885586 3:-0.772793 4:0.557292 5:-0.904113 6:0.083894 7:0.107536 8:-0.765588 9:-0.866444 10:-1 11:-0.369875 
-0.0581988818558979 1:-0.222591 2:0.663121 3:-0.689932 4:0.97576 5:0.082403 6:-0.050609 7:0.658901 8:-0.970008 9:-0.985253 10:-0.4263 11:1 
-3.234424492298035 1:0.526722 2:0.613546 3:-0.75157 4:0.852789 5:-0.970548 6:0.452455 7:0.611852 8:-0.943436 9:-0.975515 10:-0.318244 11:1 
-0.5207759700965875 1:0.645992 2:0.897601 3:-0.514525 4:0.974051 5:0.857319 6:0.735381 7:0.130578 8:-0.937648 9:-0.993879 10:-0.806875 11:1 
-0.006589294046653968 1:0.032002 2:0.843265 3:-0.779836 4:0.913167 5:-0.518588 6:0.445344 7:0.840451 8:-0.994475 9:-0.998331 10:-0.885354 11:1 
-0.7405073941234079 1:0.578455 2:0.736015 3:-0.765438 4:0.685516 5:-0.580709 6:0.290415 7:0.002238 8:-0.936859 9:-0.987479 10:-0.991228 11:0.771691 
-1.693955885068953 1:0.4516 2:0.766989 3:-0.725015 4:0.918167 5:-0.60379 6:0.754142 7:-0.006993 8:-0.930018 9:-0.989427 10:-0.965662 11:1 
-0.01038418106670573 1:-0.415624 2:0.75791 3:-0.860891 4:0.928926 5:-0.643093 6:-0.183448 7:0.759607 8:-0.984215 9:-0.988592 10:-0.586894 11:1 
-0.5676858050849567 1:-0.367196 2:0.114281 3:-0.709495 4:0.914117 5:0.04715 6:0.17906 7:0.805075 8:-0.982636 9:-0.999165 10:-0.697623 11:1 
-0.6102949985086579 1:-0.302625 2:0.242401 3:-0.73185 4:0.675706 5:-0.940119 6:0.363189 7:0.235039 8:-0.960274 9:-0.976071 10:-0.6145 11:1 
-0.6756351280779729 1:0.749958 2:0.871924 3:-0.704916 4:0.668428 5:-0.88329 6:0.26651 7:0.405522 8:-0.9608 9:-0.977184 10:-0.496992 11:1 
-4.358566178647727 1:0.439646 2:0.854301 3:-0.744554 4:0.860701 5:-0.974293 6:0.495121 7:-0.165315 8:-0.938174 9:-0.955481 10:-0.005054 11:0.89726 
-0.03841229872525871 1:-0.080114 2:0.962885 3:-0.895947 4:0.948293 5:-0.511078 6:-0.146532 7:0.85357 8:-0.983689 9:-0.992209 10:-0.774648 11:1 
-0.2617026074900887 1:0.12544 2:0.673268 3:-0.865837 4:0.793424 5:-0.776453 6:0.511309 7:0.631813 8:-0.96422 9:-0.983862 10:-0.437652 11:1 
-0.3865705791628916 1:0.938712 2:0.884607 3:-0.951959 4:0.780007 5:0.315558 6:0.686209 7:0.117034 8:-0.960537 9:-0.968002 10:-0.724033 11:1 
-0.2024661162882861 1:0.73875 2:0.987317 3:-0.925428 4:0.990127 5:0.701021 6:0.341554 7:0.781736 8:-0.965272 9:-0.980245 10:-0.467885 11:1 
-1.498130246888993 1:0.822951 2:0.832095 3:-0.816709 4:0.845954 5:-0.985569 6:0.697103 7:0.553905 8:-0.992107 9:-0.997496 10:0.700414 11:1 
-0.001199053610353459 1:0.84815 2:0.57928 3:-0.738168 4:0.9469 5:0.515087 6:0.519631 7:0.814311 8:-0.986319 9:-0.988592 10:-0.700602 11:1 
-0.127304375569694 1:0.831147 2:0.910729 3:-0.600444 4:0.864435 5:-0.986546 6:0.04955 7:0.641399 8:-0.95317 9:-0.991375 10:-0.112008 11:1 
-1.046568288766204 1:0.682375 2:0.475235 3:-0.833218 4:0.912028 5:-0.981396 6:0.568197 7:0.580928 8:-0.97448 9:-0.989427 10:-0.457917 11:1 
-4.082928051144814 1:0.312496 2:0.801922 3:-0.599231 4:0.553812 5:-0.985996 6:0.845525 7:0.294597 8:-0.960011 9:-0.979132 10:-0.24713 11:1 
-0.1053590454860819 1:-0.0553 2:0.152374 3:-0.781655 4:0.870194 5:-0.960941 6:0.137756 7:0.472195 8:-0.983952 9:-0.991931 10:-0.463147 11:1 
-0.105820637935374 1:0.769994 2:0.581906 3:-0.576111 4:0.791462 5:0.026613 6:0.137605 7:0.816694 8:-0.968956 9:-0.98887 10:-0.872219 11:1 
-1.696225068936038 1:0.567271 2:-0.050732 3:-0.068459 4:-0.347299 5:-0.981987 6:0.648687 7:0.270282 8:-0.976585 9:-0.988592 10:-0.735268 11:1 
-0.356348432880266 1:-0.101034 2:-0.05585 3:-0.309756 4:0.086801 5:-0.965704 6:-0.466223 7:0.373732 8:-0.986056 9:-0.994157 10:-0.449801 11:1 
-1.5295738700066 1:0.757361 2:0.488407 3:-0.491252 4:0.314832 5:-0.920396 6:0.58953 7:0.553283 8:-0.97106 9:-0.981636 10:-0.337782 11:1 
-0.5908813252201109 1:0.71817 2:-0.054648 3:-0.783623 4:0.869055 5:-0.353273 6:0.496634 7:0.025419 8:-0.992107 9:-0.996661 10:-0.973637 11:1 
-0.5872902563771153 1:0.853629 2:0.435183 3:-0.854767 4:0.917091 5:-0.803869 6:0.952493 7:-0.001325 8:-0.88161 9:-0.918753 10:-0.919832 11:-0.220675 
-1.888245205125775 1:0.882767 2:0.967024 3:-0.611695 4:0.773678 5:-0.877327 6:0.948256 7:-0.105641 8:-0.802947 9:-0.902894 10:-0.953677 11:-0.453402 
-0.3512655257855127 1:-0.612552 2:0.872458 3:-0.771593 4:0.864878 5:-0.142183 6:0.68394 7:0.856116 8:-0.985793 9:-0.996939 10:-0.931747 11:1 
-0.1145191368448472 1:0.945029 2:0.908638 3:-0.82149 4:0.934686 5:0.17194 6:0.807247 7:0.82253 8:-0.992634 9:-0.99527 10:-0.59128 11:1 
-0.8145670622395249 1:-0.393097 2:0.907347 3:-0.70166 4:0.924243 5:0.109718 6:0.116423 7:0.826588 8:-0.973428 9:-0.986644 10:-0.600943 11:1 
-0.002172542157368282 1:-0.351348 2:0.718081 3:-0.928542 4:0.894624 5:-0.365303 6:0.574249 7:0.803802 8:-0.99658 9:-0.990818 10:-0.198438 11:1 
-11.34860847196436 1:0.805653 2:0.603622 3:-0.676245 4:0.925825 5:-0.989681 6:0.991376 7:-0.643631 8:-0.943173 9:-0.925153 10:-0.160277 11:0.675567 
-0.964331849789398 1:0.368555 2:0.887633 3:-0.489348 4:0.093889 5:-0.931265 6:0.195703 7:0.338565 8:-0.984741 9:-0.99527 10:-0.62937 11:1 
-6.747528492056305 1:0.857047 2:0.664145 3:-0.631023 4:0.635012 5:-0.988419 6:0.658673 7:-0.634621 8:-0.983689 9:-0.990262 10:-0.251539 11:1 
-0.7674511492726487 1:0.898932 2:0.680477 3:-0.536571 4:0.641151 5:-0.992978 6:0.431273 7:-0.365449 8:-0.956853 9:-0.967446 10:-0.173177 11:1 
-0.8723533946600198 1:0.79499 2:0.732277 3:-0.627991 4:0.973165 5:-0.110471 6:0.116121 7:0.345651 8:0.403052 9:-0.436561 10:-0.893446 11:-0.946657 
-1.439263494003049 1:0.481486 2:0.668551 3:-0.031012 4:0.863738 5:-0.91775 6:0.446857 7:0.272735 8:-0.880821 9:-0.894546 10:0.065966 11:0.452046 
-0.8813363576436193 1:0.879348 2:0.836367 3:-0.519432 4:0.948989 5:-0.906596 6:0.62448 7:0.299201 8:-0.088135 9:-0.249026 10:-0.567708 11:-0.250758 
-0.4443447455003728 1:0.761527 2:0.558854 3:-0.419194 4:0.857789 5:0.920966 6:0.690899 7:0.648537 8:-0.984741 9:-0.984697 10:-0.026257 11:0.991822 
-0.5854671679492586 1:0.310278 2:0.528548 3:-0.775597 4:0.839942 5:-0.982435 6:0.834027 7:-0.33728 8:-0.966851 9:-0.980801 10:-0.25372 11:1 
-0.3192855510639372 1:0.933052 2:-0.057363 3:-0.821187 4:0.240151 5:-0.99025 6:0.88456 7:0.590438 8:-0.98553 9:-0.990818 10:0.356499 11:1 
-0.1935630767094731 1:-0.285758 2:0.715322 3:-0.464571 4:0.866523 5:0.935397 6:0.886527 7:0.721964 8:-0.970271 9:-0.986366 10:-0.433477 11:1 
-0.4754397815594173 1:-0.841199 2:0.271461 3:-0.640571 4:0.863295 5:-0.979768 6:0.791966 7:0.184794 8:-0.9608 9:-0.97468 10:-0.3394 11:0.920972 
-0.777583080306591 1:0.841425 2:-0.162343 3:-0.81085 4:0.750957 5:-0.972013 6:0.572434 7:0.156491 8:-0.418311 9:-0.498887 10:-0.527764 11:-0.245333 
-3.517703392564877 1:0.576101 2:0.304259 3:-0.77355 4:0.568178 5:-0.854082 6:0.839625 7:0.471224 8:-0.987109 9:-0.993044 10:-0.541134 11:1 
-3.968091788926944 1:0.629487 2:0.45779 3:-0.576309 4:0.497611 5:-0.994667 6:0.505863 7:0.386497 8:-0.977111 9:-0.990818 10:0.044646 11:1 
-0.6934227776224475 1:0.603315 2:0.182413 3:-0.727476 4:0.473371 5:-0.994504 6:0.830396 7:-0.577476 8:-0.959221 9:-0.979967 10:1 11:1 
-0.02153339321862292 1:0.925829 2:0.942548 3:-0.653278 4:0.943356 5:-0.121991 6:0.710871 7:0.741332 8:-0.985267 9:-0.989983 10:-0.169026 11:1 
-4.861242134376541 1:0.523507 2:0.947755 3:-0.681108 4:0.958229 5:-0.273852 6:0.823133 7:-0.762589 8:-0.997369 9:-0.989427 10:-0.487868 11:1 
-3.484278834520253 1:0.260446 2:0.793378 3:-0.501185 4:0.958482 5:-0.637028 6:0.550647 7:-0.459116 8:-0.367798 9:-0.414858 10:-0.38645 11:-0.141566 
-2.227059126863505 1:0.924064 2:0.292822 3:-0.722335 4:0.766906 5:-0.900428 6:0.712081 7:0.025733 8:-0.870034 9:-0.816639 10:0.287378 11:0.58904 
-0.1714058015544899 1:0.796325 2:0.459348 3:-0.459801 4:0.757476 5:0.203916 6:0.903321 7:0.447049 8:-0.7206 9:-0.830829 10:-0.382158 11:-0.407929 
-0.09856615025677531 1:0.63594 2:0.311023 3:-0.330848 4:0.540141 5:-0.65152 6:0.777895 7:0.451629 8:-0.808735 9:-0.810518 10:-0.353614 11:-0.001058 
-0.6976629310802884 1:0.81917 2:0.974233 3:-0.975056 4:1 5:-0.334263 6:0.853393 7:-0.785811 8:-0.97527 9:-0.986366 10:-0.330769 11:1 
-1.608215298255457 1:0.940342 2:0.900627 3:-0.749124 4:0.960318 5:-0.703036 6:0.737953 7:-0.806115 8:-0.505919 9:-0.565387 10:-0.542025 11:-0.21521 
-0.3462802132887529 1:0.689688 2:0.912331 3:-0.726225 4:0.925002 5:-0.963322 6:0.983962 7:0.609812 8:-0.97185 9:-0.982193 10:-0.182583 11:1 
-1.019504528432163 1:0.980099 2:0.994259 3:-0.632692 4:0.908167 5:-0.938572 6:0.857175 7:0.354213 8:-0.714549 9:-0.755982 10:-0.774296 11:-0.174175 
-1.324815643691143 1:0.781337 2:0.612968 3:-0.382504 4:0.67963 5:0.455552 6:0.864438 7:0.316877 8:-0.71297 9:-0.864496 10:-0.620082 11:-0.597382 
-1.409951777627777 1:0.413632 2:0.957011 3:-0.770952 4:0.93266 5:-0.696482 6:0.744005 7:-0.449536 8:-0.529334 9:-0.570117 10:-0.241336 11:-0.085963 
-1.252280616909345 1:0.525408 2:0.324952 3:0.247228 4:-0.528369 5:-0.962142 6:0.703457 7:-0.604197 8:-0.893449 9:-0.887034 10:-0.099436 11:0.716581 
-0.9018190570187015 1:0.498942 2:0.841841 3:-0.19903 4:-0.039397 5:-0.980786 6:0.854603 7:-0.464185 8:-0.981321 9:-0.987201 10:-0.153452 11:1 
-4.379800934529865 1:0.919603 2:0.734369 3:-0.693985 4:0.917281 5:-0.988866 6:0.950677 7:-0.026512 8:-0.827414 9:-0.890373 10:-0.974036 11:-0.42256 
-0.1569122447946099 1:0.735898 2:0.734369 3:-0.676075 4:0.739565 5:-0.989497 6:0.91134 7:0.412596 8:-0.983162 9:-0.991931 10:0.056068 11:1 
-0.5022587643155041 1:0.269796 2:0.990165 3:-0.96227 4:0.995633 5:-0.29616 6:0.800741 7:-0.808016 8:-0.969219 9:-0.983862 10:-0.447127 11:1 
-0.8658713516983619 1:0.685839 2:0.483156 3:-0.26431 4:0.862093 5:0.042163 6:-0.220819 7:-0.356794 8:-0.957643 9:-0.996661 10:-0.817453 11:1 
-0.3883355431216221 1:0.874118 2:1 3:-0.925437 4:0.801715 5:0.925016 6:0.920115 7:0.452704 8:-0.973691 9:-0.988592 10:-0.171934 11:1 
-0.5266210371686619 1:0.8268 2:0.884918 3:-0.013399 4:0.813867 5:-0.98909 6:0.646115 7:-0.242137 8:-0.964483 9:-0.984697 10:-0.002732 11:1 
-0.1869885551301533 1:0.437676 2:0.559966 3:-0.863221 4:0.809943 5:-0.975148 6:0.824646 7:0.209818 8:-0.97448 9:-0.980801 10:0.410233 11:1 
-0.02368161310535262 1:-0.102324 2:0.730097 3:-0.709489 4:0.914686 5:0.890129 6:0.884409 7:0.587979 8:-0.972902 9:-0.985531 10:0.135345 11:0.987774 
-0.5347192254990273 1:0.428439 2:0.509857 3:-0.747659 4:0.483561 5:0.804948 6:0.831152 7:0.596629 8:-0.898974 9:-0.897885 10:-0.619707 11:0.446786 
-1.533474903274605 1:-0.345257 2:0.39887 3:-0.732095 4:0.852283 5:-0.993019 6:0.830698 7:0.138768 8:-0.868719 9:-0.892321 10:0.023701 11:0.342464 
-0.4400722005487596 1:-0.324428 2:0.821726 3:-0.468159 4:0.89551 5:0.803035 6:0.877298 7:0.588002 8:-0.972902 9:-0.986923 10:0.099764 11:1 
-1.867419805763431 1:0.027271 2:0.904766 3:-0.348092 4:0.265087 5:-0.825648 6:0.830547 7:-1 8:-0.96422 9:-0.968002 10:-0.294062 11:0.876712 
-0.6869000533306564 1:0.172329 2:0.596369 3:-0.578117 4:0.197177 5:-0.972176 6:0.831909 7:-0.497992 8:-0.930282 9:-0.913467 10:0.425643 11:0.706451 
-3.253308984613761 1:0.483659 2:0.966446 3:-0.05683 4:0.686086 5:-0.852861 6:0.855511 7:-0.710251 8:-0.915285 9:-0.892877 10:0.02607 11:0.67678 
-1.634885086320129 1:0.439872 2:0.547951 3:-0.753026 4:0.515838 5:-0.980786 6:0.780165 7:0.398628 8:-0.656406 9:-0.586255 10:-0.998382 11:0.178079 
-2.94059337128566 1:0.734041 2:0.501135 3:-0.843193 4:0.664061 5:-0.672077 6:0.842651 7:0.084198 8:-0.868456 9:-0.895938 10:-0.06341 11:0.38356 
-0.5829081814968906 1:0.084189 2:0.771127 3:-0.547968 4:0.874814 5:-0.483681 6:0.692412 7:0.715052 8:-0.985793 9:-0.984418 10:-0.088365 11:0.978363 
-0.7415052218969655 1:0.669131 2:0.88968 3:-0.433164 4:0.857979 5:0.169111 6:0.687117 7:0.133438 8:0.707445 9:-0.544519 10:-0.999883 11:-1 
-0.2119954980191112 1:-0.577119 2:0.710338 3:-0.836894 4:0.916395 5:-0.634769 6:0.235646 7:0.786468 8:-0.986846 9:-0.989983 10:-0.606384 11:1 
-1.15310248750762 1:0.50682 2:-0.03707 3:-0.096641 4:-0.209455 5:-0.947283 6:0.127165 7:-0.311913 8:-0.907393 9:-0.894268 10:-0.146908 11:0.38356 
-2.925752214108866 1:0.789624 2:0.845935 3:-0.430154 4:0.845005 5:-0.987421 6:0.925713 7:-0.091865 8:-0.884241 9:-0.851697 10:-0.274079 11:0.426567 
